tree
version=v4
num_class=1
num_tree_per_iteration=1
label_index=0
max_feature_idx=9
objective=regression
feature_names=Column_0 Column_1 Column_2 Column_3 Column_4 Column_5 Column_6 Column_7 Column_8 Column_9
feature_infos=[0.00069611053894147457:0.99864743284791935] [0.00032899173720590813:0.99864098598067941] [0.003354966699103179:0.99964019126523673] [0.0011375172809592327:0.99835784146826567] [0.00018584430880175251:0.99852381828439507] [0.0024126482385973258:0.99981136018168826] [0.0002754704362053495:0.999981321704004] [0.0017549177492578449:0.99868589310689893] [0.0012657393737565137:0.99774751398709338] [0.0025742775298874809:0.99806257368877893]
tree_sizes=1585 1651 1814 1734 1751 1745 1839 1657 1587 1668

Tree=0
num_leaves=18
num_cat=0
split_feature=0 5 8 6 2 7 0 0 5 5 1 3 3 3 1 1 5
split_gain=1.8276 2.70155 1.99387 1.38378 1.63305 1.65462 1.44669 1.43027 1.19987 2.1643 1.17203 1.01796 2.03199 0.898334 0.892592 0.726074 0.692063
threshold=0.22106266306738051 0.29602654307008902 0.8644204248112769 0.84036184934404123 0.73370827362900215 0.17501159062235536 0.46223283783694979 0.35860340964182302 0.81388643539531258 0.36546465861854865 0.33183628011831345 0.72502685620725427 0.42058123500005878 0.57988396444123325 0.44841399021451228 0.59429348105503044 0.67207694884853475
decision_type=2 2 2 2 2 2 2 2 2 2 2 2 2 2 2 2 2
left_child=1 -1 3 4 5 -2 7 -7 9 -6 -8 12 -12 16 -5 -4 -3
right_child=2 13 15 14 8 6 10 -9 -10 -11 11 -13 -14 -15 -16 -17 -18
leaf_value=0.48461538461538461 0.52714285714285714 0.51956521739130435 0.46599999999999997 0.46904761904761905 0.50312500000000004 0.50357142857142856 0.52368421052631575 0.46904761904761905 0.51000000000000001 0.46714285714285714 0.51111111111111107 0.52142857142857146 0.47399999999999998 0.50862068965517238 0.49473684210526314 0.49090909090909091 0.54500000000000004
leaf_weight=26 35 23 25 21 32 28 38 21 25 35 36 21 25 29 38 22 20
leaf_count=26 35 23 25 21 32 28 38 21 25 35 36 21 25 29 38 22 20
internal_value=0.5 0.512245 0.497015 0.499577 0.502365 0.507353 0.503254 0.488776 0.491304 0.484328 0.509167 0.502439 0.495902 0.522222 0.485593 0.47766 0.531395
internal_weight=0 98 402 355 296 204 169 49 92 67 120 82 61 72 59 47 43
internal_count=500 98 402 355 296 204 169 49 92 67 120 82 61 72 59 47 43
is_linear=0
shrinkage=1


Tree=1
num_leaves=18
num_cat=0
split_feature=0 5 8 6 5 5 2 5 4 8 1 1 8 1 5 5 6
split_gain=1.48035 2.18826 1.61504 1.14388 1.48861 1.40678 1.44264 1.54397 1.27802 1.02542 0.891211 1.3804 0.79865 0.763809 1.3759 0.590045 0.565717
threshold=0.22106266306738051 0.29602654307008902 0.8644204248112769 0.67820361234441806 0.71811838809999917 0.47749335851245062 0.65393152466981197 0.82877278805131971 0.67749278675035207 0.45687556080908753 0.29171221746341508 0.61185277623570411 0.50424472874511728 0.24153732178010698 0.67207694884853475 0.41530881383824308 0.41360665463372187
decision_type=2 2 2 2 2 2 2 2 2 2 2 2 2 2 2 2 2
left_child=1 -1 3 5 8 10 16 -8 9 -5 -2 -12 -13 -3 -15 -4 -7
right_child=2 13 15 4 -6 6 7 -9 -10 -11 11 12 -14 14 -16 -17 -18
leaf_value=-0.013846153937853302 -0.0024167095169876562 0.035033505377562155 -0.031075000017881396 -0.038376238090651382 0.0091474148280480325 0.015101971455982756 -0.029492837913108597 0.0030909652893359846 -3.031650558114052e-05 -0.0098796835412149845 0.030709079977793569 0.018342270092530685 -0.0086029675873843109 -0.0034749624729156492 0.030045978104074795 -0.0086608698834543651 -0.0039683016283171514
leaf_weight=26 33 23 24 28 34 35 33 26 32 23 39 22 22 25 24 23 28
leaf_count=26 33 23 24 28 34 35 33 26 32 23 39 22 22 25 24 23 28
internal_value=0 0.0110204 -0.00268657 -0.000380282 -0.00847629 0.00359969 -0.00389707 -0.0151339 -0.0156956 -0.0255249 0.0114842 0.0170111 0.00486965 0.02 0.0129435 -0.0201064 0.00662629
internal_weight=0 98 402 355 117 238 122 59 83 51 116 83 44 72 49 47 63
internal_count=500 98 402 355 117 238 122 59 83 51 116 83 44 72 49 47 63
is_linear=0
shrinkage=0.1


Tree=2
num_leaves=20
num_cat=0
split_feature=0 5 6 1 1 7 2 8 7 5 1 0 6 6 4 1 8 0 4
split_gain=1.19909 1.79824 1.37526 1.59593 1.76531 1.39075 3.7643 1.41834 1.43574 1.40371 1.11933 0.990507 1.74158 1.54795 0.918571 0.816903 0.652267 0.555816 0.497788
threshold=0.22106266306738051 0.2535351965383863 0.85269332851566682 0.89082637880178195 0.80796537277148961 0.18338872801153114 0.46798165280556042 0.49736081858640502 0.6425183455302903 0.42820913970352548 0.40220552400227139 0.5243990008661078 0.41360665463372187 0.30549912457608286 0.37141409203958126 0.33628038141769645 0.17519507180229391 0.136642858079948 0.56888334467749047
decision_type=2 2 2 2 2 2 2 2 2 2 2 2 2 2 2 2 2 2 2
left_child=1 -1 3 4 5 6 -2 11 9 -9 -4 12 -7 -13 -3 -10 -15 -16 -12
right_child=2 14 10 -5 -6 7 -8 8 15 -11 18 13 -14 16 17 -17 -18 -19 -20
leaf_value=-0.015258740836923773 0.047153633691015696 0.001023980975151062 -0.035530336052179333 -0.019498912305445287 0.023970381915569307 0.01157358033316476 -0.0076808056523722983 -0.0052265295515889713 0.013063139840960504 -0.038062702218691513 0.0041174360683986118 -0.010147151708602906 -0.029152865495000568 0.0080354072153568275 0.013931085824966431 -0.014301574528217315 0.03050161876848766 0.034623689232049164 -0.017407179556109691
leaf_weight=22 21 24 20 37 34 21 31 23 24 30 21 25 21 24 25 20 28 27 22
leaf_count=22 21 24 20 37 34 21 31 23 24 30 21 25 21 24 25 20 28 27 22
internal_value=0 0.00991837 -0.00241791 0.000103535 0.00250516 -0.00021804 0.0144639 -0.00375257 -0.0127279 -0.023813 -0.0159857 0.00356346 -0.00878964 0.0103015 0.0172065 0.000624633 0.0201326 0.0246753 -0.00689516
internal_weight=0 98 402 339 302 268 52 216 97 53 63 119 42 77 76 44 52 52 43
internal_count=500 98 402 339 302 268 52 216 97 53 63 119 42 77 76 44 52 52 43
is_linear=0
shrinkage=0.1


Tree=3
num_leaves=19
num_cat=0
split_feature=1 0 5 2 5 5 0 6 8 6 5 1 9 0 7 2 4 7
split_gain=0.997225 1.17716 1.0183 1.7625 1.39275 1.19498 1.00575 0.997724 2.53289 1.17992 1.19959 1.17482 1.02896 0.9564 0.923279 0.870634 1.34574 0.828549
threshold=0.078373777786604606 0.39000060166997946 0.82389010952501784 0.23137912998752455 0.6222149743792692 0.67648447232451592 0.36935647404530558 0.45901255457086299 0.71863234136010135 0.24960366710638263 0.13638766529594362 0.30205690082805187 0.38492740639919065 0.60007571899088441 0.46351544725897953 0.2521021925309388 0.65525845975080443 0.4089037252637398
decision_type=2 2 2 2 2 2 2 2 2 2 2 2 2 2 2 2 2 2
left_child=1 -1 4 -4 7 -6 -7 9 11 12 -11 -9 -2 -10 -5 -13 -17 -8
right_child=2 -3 3 14 5 6 17 8 13 10 -12 15 -14 -15 -16 16 -18 -19
leaf_value=0.032305433303117755 0.0098216148359434943 -0.0015934409130187262 -0.01764625608921051 0.0035311195158189341 -0.034490845420143822 0.011203811764717103 -0.031174863278865816 -0.027682781474930904 0.031419227094877336 -0.0022041999158405124 0.027576938663658342 0.011744021092142377 -0.01780523038827456 0.00086388871073722845 0.027074655890464785 -0.025142592872892108 0.0032306117005646232 -0.0053804867195360595
leaf_weight=20 28 21 20 31 22 20 20 35 21 21 38 21 26 20 36 35 32 33
leaf_count=20 28 21 20 31 22 20 20 35 21 21 38 21 26 20 36 35 32 33
internal_value=0 0.0149426 -0.00133474 0.00840491 -0.00361256 -0.0140608 -0.0079038 -2.92341e-05 -0.00501099 0.00720093 0.0169769 -0.012186 -0.0034802 0.0165142 0.0161814 -0.00602258 -0.0115912 -0.0151142
internal_weight=0 41 459 87 372 95 73 277 164 113 59 123 54 41 67 88 67 53
internal_count=500 41 459 87 372 95 73 277 164 113 59 123 54 41 67 88 67 53
is_linear=0
shrinkage=0.1


Tree=4
num_leaves=19
num_cat=0
split_feature=0 5 8 4 3 2 1 8 8 5 5 2 7 9 7 3 6 5
split_gain=0.86675 1.59607 1.5681 0.995955 0.885241 1.2541 0.837984 0.832925 1.65123 0.842747 1.35094 1.15684 0.729027 1.09638 0.722816 0.915772 0.60065 0.351491
threshold=0.26364593315090501 0.29602654307008902 0.8644204248112769 0.91577602137519321 0.16031623114428681 0.52986783036296947 0.59429348105503044 0.094163175376780386 0.25038218490468428 0.82877278805131971 0.62736319252291117 0.72227159176219213 0.42130505987633643 0.63875458806943386 0.25596827729961047 0.42058123500005878 0.52342007257068379 0.36546465861854865
decision_type=2 2 2 2 2 2 2 2 2 2 2 2 2 2 2 2 2 2
left_child=1 -1 3 4 5 -2 -4 -6 16 10 11 14 -3 -14 -10 -16 -9 -13
right_child=2 12 6 -5 7 -7 -8 8 9 -11 -12 17 13 -15 15 -17 -18 -19
leaf_value=-0.0097909484360669125 0.0012165410651101007 0.0037396876197872742 -0.033881962570277133 0.0196235541254282 0.015948395151644947 -0.03020041349033515 -0.0062811745838685477 -0.005892773717641831 0.026929746639160885 0.016134264516203027 -0.020339362110410417 -0.00045693337917327879 0.035389443615387227 0.0049550266563892368 0.021483156220479447 -0.0042804954019752704 -0.029357560599843666 -0.019205035269260408
leaf_weight=37 27 33 22 24 32 24 22 20 21 38 28 20 29 20 22 37 24 20
leaf_count=37 27 33 22 24 32 24 22 20 21 38 28 20 29 20 22 37 24 20
internal_value=0 0.00744991 -0.00232687 -8.75363e-06 -0.00151411 -0.0135679 -0.0200816 0.000832244 -0.00127087 0.0028502 -0.000560579 0.00405447 0.0152293 0.0229672 0.0109972 0.00532629 -0.0186917 -0.00983098
internal_weight=0 119 381 337 313 51 44 262 230 186 148 120 82 49 80 59 44 40
internal_count=500 119 381 337 313 51 44 262 230 186 148 120 82 49 80 59 44 40
is_linear=0
shrinkage=0.1


Tree=5
num_leaves=19
num_cat=0
split_feature=1 1 5 4 3 5 0 0 7 6 4 3 6 0 0 6 3 0
split_gain=0.78286 0.943088 0.898717 1.19443 1.15439 1.01377 1.26663 1.07566 1.12086 1.43935 1.29349 1.25455 0.98907 0.886276 0.870427 0.918831 0.582144 0.56593
threshold=0.078373777786604606 0.15688854075840195 0.8729497573437891 0.3683276666245367 0.85509578322574475 0.6222149743792692 0.26364593315090501 0.95078564735212834 0.49666804714732637 0.70587068743275261 0.69969684592268655 0.58916514833030187 0.48852566912395873 0.39000060166997946 0.51208788380107539 0.49524827520293918 0.34501729958591887 0.63913998354136836
decision_type=2 2 2 2 2 2 2 2 2 2 2 2 2 2 2 2 2 2
left_child=13 -2 4 -4 5 7 -7 8 10 11 14 -10 -6 -1 -3 -16 -8 -18
right_child=1 2 3 -5 12 6 16 -9 9 -11 -12 -13 -14 -15 15 -17 17 -19
leaf_value=0.028305123746395114 -0.016057785199238703 -0.010392934083938599 0.02879508100450039 0.00015071114978274785 0.028366136821833528 0.0082061600956049845 -0.030810283400394302 -0.021200047433376314 0.014264041100229536 -0.027761105739552046 0.025804779399186375 -0.013360916030022405 -0.00070628070831298833 -0.0011087252980186827 0.024899914212848831 -0.0040315578381220499 -0.024378104209899904 -0.0013776377491329028
leaf_weight=20 39 33 24 37 22 22 27 22 35 23 32 31 25 21 23 21 20 23
leaf_count=20 39 33 24 37 22 22 27 22 35 23 32 31 25 21 23 21 20 23
internal_value=0 -0.00118261 0.000198653 0.0114206 -0.00170814 -0.00390904 -0.0127238 -0.000222873 0.00210792 -0.00621857 0.00890662 0.00128868 0.0129021 0.0132395 0.00188401 0.0110917 -0.0193018 -0.0120755
internal_weight=0 459 420 61 359 312 92 220 198 89 109 66 47 41 77 44 70 43
internal_count=500 459 420 61 359 312 92 220 198 89 109 66 47 41 77 44 70 43
is_linear=0
shrinkage=0.1


Tree=6
num_leaves=20
num_cat=0
split_feature=5 0 7 3 3 8 8 5 4 0 0 1 6 8 3 9 1 3 4
split_gain=0.729136 1.08034 0.828734 2.20484 0.821704 0.820411 1.19477 1.21461 1.29025 2.27949 1.14588 1.09381 0.9995 0.730915 0.699632 0.508381 0.374678 0.297512 0.284411
threshold=0.24112227261660399 0.22106266306738051 0.46987096309284143 0.50879418623250927 0.69910042647451809 0.083185089953480243 0.17064650106112675 0.34214265655639908 0.52637342616905802 0.44133551253370973 0.88237489664703717 0.36375195026431545 0.31538175679316238 0.51916735513791912 0.31622024427793288 0.56957282855599478 0.69317950458727307 0.65202800550674278 0.44644549579170889
decision_type=2 2 2 2 2 2 2 2 2 2 2 2 2 2 2 2 2 2 2
left_child=2 4 3 -1 13 -3 -7 -8 9 -9 12 -10 -11 -2 -13 -14 18 -16 -4
right_child=1 5 16 -5 -6 6 7 8 11 10 -12 14 15 -15 17 -17 -18 -19 -20
leaf_value=-0.015020802021026611 0.0084073121900911686 0.015170743266741435 -0.011567837595939637 0.027226922199839639 -0.0025539557139078778 -0.021448206798783665 0.019237236318917113 0.032406700154145561 0.0034298630861135633 -0.026417235081846065 0.017322542450644754 -0.0037487328052520754 0.010412157394669275 0.032136524081230161 -0.031620995241862078 -0.011340283779870897 -0.0035687838494777679 -0.015820343792438508 -0.028044571117921309
leaf_weight=30 27 30 20 21 24 29 29 24 39 22 22 25 22 25 26 21 20 22 22
leaf_count=30 27 30 20 21 24 29 29 24 39 22 22 25 22 25 26 21 20 22 22
internal_value=0 0.00206349 -0.00706701 0.00237532 0.0127515 -0.000548373 -0.00222657 -1.45563e-05 -0.00251815 0.00512251 -0.00240416 -0.0100906 -0.00908089 0.0198156 -0.0173139 -0.000211128 -0.0148341 -0.024379 -0.0201985
internal_weight=0 387 113 51 76 311 281 252 223 111 87 112 65 52 73 43 62 48 42
internal_count=500 387 113 51 76 311 281 252 223 111 87 112 65 52 73 43 62 48 42
is_linear=0
shrinkage=0.1


Tree=7
num_leaves=18
num_cat=0
split_feature=1 7 0 7 5 4 7 9 9 8 1 1 1 7 4 7 5
split_gain=0.632984 0.737153 1.47207 1.38086 1.17959 0.952836 1.40808 1.38877 1.57411 1.26163 1.24658 0.739864 0.68356 0.611116 0.595808 0.577175 0.447765
threshold=0.89726361042144098 0.18338872801153114 0.77401946619813677 0.33221540683684786 0.071823441999235363 0.69969684592268655 0.65526464607080359 0.39410809090675353 0.67723122269621927 0.28140319310156631 0.33183628011831345 0.70430247628283638 0.48324682765528809 0.073982575111862084 0.5870243930866742 0.57963585780199922 0.55917412658355692
decision_type=2 2 2 2 2 2 2 2 2 2 2 2 2 2 2 2 2
left_child=1 2 13 14 -5 6 11 -8 -9 -7 -11 12 -6 -1 -3 -2 -12
right_child=15 3 -4 4 5 9 7 8 -10 10 16 -13 -14 -15 -16 -17 -18
leaf_value=0.0072942962569575156 -0.021443460106849672 -0.021731771872593807 -0.010840502381324769 -0.018223238564454593 0.022786833147207898 0.0158000625371933 0.017459705833232763 -0.02675543702565707 0.0051767553153790925 0.0056500613689422609 -0.031330011430240813 0.035600641369819643 -0.00042012252590873023 0.026847329103585445 -0.0031584697384988108 0.0013481414318084718 -0.011335266505678496
leaf_weight=31 25 39 26 26 30 25 33 26 38 30 21 20 22 33 31 20 24
leaf_count=31 25 39 26 26 30 25 33 26 38 30 21 20 22 33 31 20 24
internal_value=0 0.00111895 0.0092248 -0.000879749 0.00211642 0.00408233 0.00866048 0.000796347 -0.0077957 -0.00365473 -0.0101397 0.0192552 0.0129685 0.0173763 -0.0135065 -0.0113139 -0.0206661
internal_weight=0 455 90 365 295 269 169 97 64 100 75 72 52 64 70 45 45
internal_count=500 455 90 365 295 269 169 97 64 100 75 72 52 64 70 45 45
is_linear=0
shrinkage=0.1


Tree=8
num_leaves=17
num_cat=0
split_feature=1 1 5 3 5 6 5 0 4 5 0 7 4 7 1 8
split_gain=0.54946 0.968169 0.621623 0.837845 0.735016 0.672901 0.672703 0.966565 0.81509 0.79837 1.01889 0.812567 0.629155 0.598853 0.583837 0.511376
threshold=0.09256916240219866 0.15688854075840195 0.90163953738581271 0.82283507875869877 0.94619302288682905 0.35720420088752164 0.6222149743792692 0.95078564735212834 0.64200365488960187 0.48156226205591357 0.37221488247402279 0.56344237986022805 0.35657728406015965 0.24414261324197231 0.04619911419263268 0.57352918326367008
decision_type=2 2 2 2 2 2 2 2 2 2 2 2 2 2 2 2
left_child=14 -2 3 6 -4 -5 7 9 12 10 15 13 -8 -12 -1 -3
right_child=1 2 4 5 -6 -7 8 -9 -10 -11 11 -13 -14 -15 -16 -17
leaf_value=-0.0010935345421666685 -0.017560574051105615 -0.021811559157712119 0.024969458296185451 0.020443581712657009 2.4798953974688496e-05 0.00021701094351316756 -0.011449767862047468 -0.020513120293617251 -0.021677550830339135 0.015269412060041685 0.0029340346117277404 -0.0074436679482460027 0.0095718068381150569 0.022317747133118765 0.021202369903524719 -0.0011682315951301939
leaf_weight=23 33 28 21 29 27 38 35 21 38 37 37 36 24 28 24 21
leaf_count=23 33 28 21 29 27 38 35 21 38 37 37 36 24 28 24 21
internal_value=0 -0.00106778 0.00022808 -0.00115386 0.0109381 0.0089718 -0.00337818 -0.000171056 -0.0102553 0.00211335 -0.00113182 0.00460875 -0.00289862 0.0112839 0.0102916 -0.0129644
internal_weight=0 453 420 372 48 67 305 208 97 187 150 101 59 65 47 49
internal_count=500 453 420 372 48 67 305 208 97 187 150 101 59 65 47 49
is_linear=0
shrinkage=0.1


Tree=9
num_leaves=18
num_cat=0
split_feature=1 7 0 7 5 6 0 0 3 3 5 9 3 0 7 4 6
split_gain=0.540552 0.555234 1.18924 1.15666 0.906887 0.790372 0.738574 1.94026 1.49878 1.14123 0.836756 1.02778 0.558105 0.534213 0.505953 0.501233 0.464991
threshold=0.89726361042144098 0.18338872801153114 0.77401946619813677 0.33221540683684786 0.071823441999235363 0.16227850225355447 0.29744948034428037 0.5243990008661078 0.69273597038450763 0.51441291687994217 0.65289924513432707 0.5134644062544943 0.26862103472156235 0.57014576201450617 0.072405896060239575 0.5870243930866742 0.081466178215862842
decision_type=2 2 2 2 2 2 2 2 2 2 2 2 2 2 2 2 2
left_child=1 2 14 15 -5 16 10 -8 9 12 11 -7 -9 -2 -1 -3 -6
right_child=13 3 -4 4 5 6 7 8 -10 -11 -12 -13 -14 -15 -16 -17 -18
leaf_value=0.0053138842540127896 0.0017264254391193392 -0.019801214337348938 -0.0099661279183167681 -0.015792681162173933 0.0018953679502010344 0.023558159023523331 -0.017397482379486687 -0.00086640045046806338 0.024953534650175194 -0.015912725969597145 0.029782838001847268 -0.0068557375669479372 0.019099739619663783 -0.020200534105300906 0.023237058023611704 -0.0027656895499075613 -0.019410016423179993
leaf_weight=28 20 39 26 26 20 20 38 28 38 27 24 25 28 25 36 31 21
leaf_count=28 20 39 26 26 20 20 38 28 38 27 24 25 28 25 36 31 21
internal_value=0 0.00103403 0.00806893 -0.000700599 0.00204158 0.00376533 0.00606394 0.00231459 0.00850516 0.000974577 0.0147037 0.00666155 0.00911667 -0.0104552 0.0153957 -0.0122569 -0.00901715
internal_weight=0 455 90 365 295 269 228 159 121 83 69 45 56 45 64 70 41
internal_count=500 455 90 365 295 269 228 159 121 83 69 45 56 45 64 70 41
is_linear=0
shrinkage=0.1


end of trees

feature_importances:
Column_5=32
Column_0=26
Column_1=25
Column_7=19
Column_3=16
Column_6=16
Column_8=15
Column_4=14
Column_2=7
Column_9=6

parameters:
[boosting: gbdt]
[objective: regression]
[metric: auc]
[tree_learner: serial]
[device_type: cpu]
[data_sample_strategy: bagging]
[data: ]
[valid: ]
[num_iterations: 10]
[learning_rate: 0.1]
[num_leaves: 31]
[num_threads: 0]
[seed: 0]
[deterministic: 0]
[force_col_wise: 0]
[force_row_wise: 0]
[histogram_pool_size: -1]
[max_depth: -1]
[min_data_in_leaf: 20]
[min_sum_hessian_in_leaf: 0.001]
[bagging_fraction: 1]
[pos_bagging_fraction: 1]
[neg_bagging_fraction: 1]
[bagging_freq: 0]
[bagging_seed: 3]
[feature_fraction: 1]
[feature_fraction_bynode: 1]
[feature_fraction_seed: 2]
[extra_trees: 0]
[extra_seed: 6]
[early_stopping_round: 0]
[early_stopping_min_delta: 0]
[first_metric_only: 0]
[max_delta_step: 0]
[lambda_l1: 0]
[lambda_l2: 0]
[linear_lambda: 0]
[min_gain_to_split: 0]
[drop_rate: 0.1]
[max_drop: 50]
[skip_drop: 0.5]
[xgboost_dart_mode: 0]
[uniform_drop: 0]
[drop_seed: 4]
[top_rate: 0.2]
[other_rate: 0.1]
[min_data_per_group: 100]
[max_cat_threshold: 32]
[cat_l2: 10]
[cat_smooth: 10]
[max_cat_to_onehot: 4]
[top_k: 20]
[monotone_constraints: ]
[monotone_constraints_method: basic]
[monotone_penalty: 0]
[feature_contri: ]
[forcedsplits_filename: ]
[refit_decay_rate: 0.9]
[cegb_tradeoff: 1]
[cegb_penalty_split: 0]
[cegb_penalty_feature_lazy: ]
[cegb_penalty_feature_coupled: ]
[path_smooth: 0]
[interaction_constraints: ]
[verbosity: 1]
[saved_feature_importance_type: 0]
[use_quantized_grad: 0]
[num_grad_quant_bins: 4]
[quant_train_renew_leaf: 0]
[stochastic_rounding: 1]
[linear_tree: 0]
[max_bin: 255]
[max_bin_by_feature: ]
[min_data_in_bin: 3]
[bin_construct_sample_cnt: 200000]
[data_random_seed: 1]
[is_enable_sparse: 1]
[enable_bundle: 1]
[use_missing: 1]
[zero_as_missing: 0]
[feature_pre_filter: 1]
[pre_partition: 0]
[two_round: 0]
[header: 0]
[label_column: ]
[weight_column: ]
[group_column: ]
[ignore_column: ]
[categorical_feature: ]
[forcedbins_filename: ]
[precise_float_parser: 0]
[parser_config_file: ]
[objective_seed: 5]
[num_class: 1]
[is_unbalance: 0]
[scale_pos_weight: 1]
[sigmoid: 1]
[boost_from_average: 1]
[reg_sqrt: 0]
[alpha: 0.9]
[fair_c: 1]
[poisson_max_delta_step: 0.7]
[tweedie_variance_power: 1.5]
[lambdarank_truncation_level: 30]
[lambdarank_norm: 1]
[label_gain: ]
[lambdarank_position_bias_regularization: 0]
[eval_at: ]
[multi_error_top_k: 1]
[auc_mu_weights: ]
[num_machines: 1]
[local_listen_port: 12400]
[time_out: 120]
[machine_list_filename: ]
[machines: ]
[gpu_platform_id: -1]
[gpu_device_id: -1]
[gpu_use_dp: 0]
[num_gpu: 1]

end of parameters

pandas_categorical:null
